#include"dtype.h"
#ifndef classifier_0_weight
Num_types classifier_0_weight[13][75] = {
        { 0.1000, -0.0000,  0.0000, -0.0000,  0.1000,  0.1000,  0.1000, -0.1000,
         -0.0000,  0.1000, -0.1000,  0.0000, -0.0000, -0.1000, -0.1000, -0.1000,
          0.0000, -0.1000,  0.0000,  0.0000,  0.1000, -0.0000,  0.2000,  0.0000,
         -0.0000, -0.3000, -0.0000,  0.0000,  0.0000, -0.0000, -0.0000,  0.1000,
          0.1000, -0.1000,  0.0000,  0.1000, -0.1000, -0.1000, -0.1000, -0.0000,
         -0.1000, -0.0000,  0.2000,  0.0000, -0.1000,  0.1000,  0.0000,  0.1000,
          0.0000, -0.1000, -0.0000, -0.0000,  0.2000, -0.1000, -0.0000, -0.0000,
          0.2000,  0.2000, -0.2000,  0.1000,  0.0000, -0.1000,  0.1000,  0.1000,
          0.1000, -0.1000,  0.1000, -0.1000, -0.1000, -0.0000,  0.0000, -0.0000,
          0.0000, -0.0000, -0.0000},
        {-0.0000, -0.1000, -0.0000,  0.1000, -0.1000, -0.1000, -0.1000, -0.1000,
          0.0000, -0.0000, -0.0000, -0.2000, -0.1000,  0.1000,  0.0000,  0.1000,
          0.1000, -0.1000, -0.1000,  0.0000,  0.2000,  0.0000, -0.1000, -0.1000,
          0.0000,  0.2000,  0.1000, -0.3000, -0.2000,  0.0000, -0.0000,  0.0000,
         -0.1000,  0.1000, -0.0000, -0.1000, -0.1000,  0.0000,  0.1000,  0.0000,
          0.1000,  0.0000, -0.2000, -0.1000,  0.1000, -0.0000, -0.1000,  0.0000,
         -0.0000,  0.1000,  0.2000,  0.0000, -0.2000, -0.0000, -0.0000,  0.3000,
          0.1000, -0.3000, -0.1000,  0.1000, -0.1000, -0.1000, -0.1000,  0.1000,
          0.0000,  0.1000, -0.1000,  0.0000, -0.1000, -0.1000, -0.0000, -0.1000,
         -0.1000,  0.0000,  0.1000},
        {-0.2000, -0.2000,  0.0000, -0.0000, -0.0000, -0.1000,  0.1000, -0.0000,
          0.1000,  0.1000,  0.1000, -0.1000,  0.1000, -0.0000,  0.0000,  0.1000,
         -0.1000,  0.2000,  0.2000, -0.0000, -0.1000, -0.1000, -0.1000, -0.1000,
         -0.1000,  0.2000, -0.1000,  0.3000,  0.2000, -0.1000, -0.0000, -0.1000,
          0.1000,  0.1000, -0.0000, -0.2000, -0.1000,  0.0000, -0.1000, -0.1000,
         -0.0000, -0.2000,  0.1000,  0.0000, -0.1000, -0.1000,  0.0000, -0.1000,
         -0.0000,  0.1000,  0.1000, -0.1000,  0.2000,  0.2000, -0.0000, -0.1000,
         -0.2000,  0.1000,  0.0000, -0.1000,  0.0000,  0.1000,  0.1000,  0.0000,
         -0.1000,  0.0000, -0.1000,  0.1000,  0.0000,  0.0000,  0.1000, -0.1000,
         -0.1000,  0.0000, -0.0000},
        { 0.0000, -0.1000, -0.0000, -0.0000, -0.1000, -0.1000, -0.1000, -0.0000,
         -0.0000, -0.0000, -0.0000,  0.0000, -0.0000,  0.0000, -0.1000,  0.1000,
          0.0000,  0.2000,  0.3000,  0.0000, -0.1000, -0.1000, -0.2000, -0.1000,
          0.1000,  0.1000, -0.0000,  0.2000,  0.3000,  0.1000,  0.0000, -0.1000,
          0.0000, -0.1000,  0.1000, -0.1000,  0.1000, -0.2000, -0.0000, -0.0000,
          0.1000, -0.0000, -0.1000, -0.1000,  0.1000, -0.1000,  0.1000, -0.1000,
         -0.0000, -0.1000,  0.0000,  0.1000, -0.1000,  0.1000,  0.1000,  0.2000,
         -0.0000, -0.3000, -0.1000, -0.0000, -0.1000, -0.1000, -0.1000, -0.0000,
         -0.1000, -0.1000,  0.1000, -0.1000, -0.1000,  0.0000,  0.0000,  0.0000,
          0.1000,  0.0000, -0.0000},
        {-0.0000,  0.1000,  0.0000, -0.3000, -0.1000, -0.0000, -0.0000,  0.0000,
         -0.0000,  0.0000, -0.1000, -0.0000,  0.1000, -0.2000, -0.0000, -0.1000,
          0.0000, -0.2000, -0.1000, -0.1000, -0.0000, -0.1000, -0.0000, -0.0000,
         -0.1000, -0.0000, -0.0000, -0.1000,  0.1000,  0.0000, -0.1000,  0.1000,
         -0.1000,  0.0000,  0.1000,  0.0000,  0.2000, -0.1000, -0.1000, -0.0000,
          0.2000, -0.0000,  0.0000,  0.0000, -0.2000, -0.1000,  0.1000,  0.1000,
          0.0000,  0.1000,  0.1000, -0.1000,  0.1000, -0.1000, -0.0000,  0.3000,
         -0.0000,  0.1000, -0.0000, -0.1000,  0.1000,  0.1000,  0.0000, -0.0000,
         -0.1000,  0.0000, -0.1000, -0.1000, -0.0000,  0.0000, -0.1000,  0.1000,
         -0.1000, -0.1000, -0.0000},
        { 0.2000, -0.1000, -0.1000, -0.1000, -0.0000, -0.1000, -0.0000,  0.0000,
         -0.1000,  0.1000, -0.1000, -0.1000,  0.0000, -0.1000, -0.1000,  0.0000,
         -0.0000,  0.3000,  0.0000,  0.1000, -0.1000,  0.0000,  0.0000,  0.1000,
          0.0000, -0.1000,  0.1000,  0.4000, -0.1000,  0.1000, -0.0000, -0.0000,
         -0.1000,  0.1000,  0.1000,  0.2000,  0.1000, -0.2000, -0.1000, -0.1000,
         -0.0000, -0.1000, -0.0000, -0.0000,  0.0000, -0.0000, -0.1000, -0.1000,
          0.1000,  0.1000, -0.1000, -0.1000,  0.1000,  0.0000, -0.1000, -0.2000,
         -0.1000, -0.0000,  0.2000, -0.0000, -0.0000,  0.0000,  0.1000,  0.1000,
         -0.0000,  0.0000, -0.0000, -0.1000,  0.1000, -0.0000,  0.0000,  0.0000,
          0.1000, -0.1000, -0.1000},
        {-0.0000,  0.2000,  0.1000,  0.3000,  0.2000, -0.1000, -0.1000,  0.1000,
          0.0000,  0.1000,  0.1000,  0.1000, -0.0000,  0.1000,  0.1000, -0.2000,
         -0.2000, -0.1000, -0.0000, -0.0000,  0.1000, -0.0000,  0.1000,  0.1000,
          0.0000, -0.2000, -0.3000, -0.2000, -0.0000,  0.1000, -0.1000, -0.1000,
         -0.0000, -0.0000,  0.1000, -0.1000,  0.0000, -0.1000,  0.2000,  0.0000,
          0.1000, -0.1000,  0.1000, -0.0000,  0.0000, -0.0000,  0.1000, -0.0000,
          0.0000,  0.0000, -0.1000, -0.1000, -0.1000, -0.1000,  0.0000,  0.3000,
         -0.1000,  0.1000,  0.1000,  0.1000,  0.1000,  0.0000, -0.1000,  0.1000,
         -0.0000,  0.1000,  0.0000, -0.0000,  0.0000,  0.1000, -0.0000,  0.1000,
         -0.1000, -0.0000, -0.0000},
        {-0.1000, -0.0000,  0.1000, -0.1000, -0.0000, -0.1000, -0.1000, -0.1000,
          0.1000,  0.1000, -0.1000,  0.0000,  0.0000, -0.0000, -0.1000,  0.0000,
         -0.0000, -0.0000,  0.0000, -0.1000, -0.0000,  0.1000, -0.1000, -0.0000,
         -0.1000, -0.0000, -0.1000,  0.1000, -0.0000, -0.0000, -0.1000,  0.0000,
          0.1000,  0.0000, -0.1000, -0.1000, -0.0000, -0.0000,  0.0000,  0.1000,
         -0.1000, -0.1000, -0.1000,  0.1000, -0.1000,  0.1000,  0.1000,  0.1000,
          0.0000, -0.1000,  0.0000, -0.1000, -0.1000, -0.0000,  0.0000,  0.0000,
         -0.0000,  0.0000, -0.0000, -0.1000,  0.1000,  0.0000,  0.1000, -0.1000,
         -0.1000, -0.0000,  0.1000, -0.1000, -0.0000, -0.1000,  0.1000, -0.0000,
          0.0000,  0.1000,  0.1000},
        {-0.0000,  0.0000,  0.2000,  0.2000,  0.1000, -0.0000,  0.0000,  0.0000,
          0.1000, -0.1000,  0.1000, -0.1000,  0.1000, -0.1000,  0.1000, -0.0000,
          0.0000,  0.3000, -0.2000,  0.1000, -0.0000,  0.1000, -0.2000, -0.0000,
         -0.1000, -0.3000,  0.1000,  0.3000, -0.3000, -0.0000,  0.1000, -0.1000,
          0.1000,  0.1000, -0.1000,  0.1000,  0.0000,  0.1000,  0.1000,  0.0000,
         -0.1000,  0.1000,  0.2000, -0.2000, -0.0000,  0.1000,  0.0000, -0.0000,
         -0.1000,  0.1000, -0.0000,  0.2000,  0.1000, -0.2000, -0.1000, -0.2000,
         -0.1000, -0.2000, -0.4000, -0.1000,  0.1000,  0.1000, -0.1000, -0.1000,
         -0.1000, -0.0000,  0.2000,  0.0000,  0.1000, -0.0000,  0.1000, -0.0000,
          0.1000, -0.0000,  0.0000},
        { 0.1000, -0.0000,  0.0000, -0.1000, -0.0000, -0.0000,  0.1000, -0.1000,
         -0.0000, -0.0000,  0.2000,  0.1000,  0.0000, -0.1000,  0.1000,  0.1000,
         -0.2000, -0.1000, -0.1000, -0.1000, -0.1000,  0.0000,  0.2000, -0.1000,
         -0.1000,  0.0000, -0.0000, -0.1000, -0.1000,  0.0000,  0.1000, -0.0000,
         -0.1000, -0.0000, -0.1000,  0.0000, -0.0000, -0.0000,  0.1000,  0.1000,
         -0.1000,  0.1000,  0.1000, -0.0000,  0.0000, -0.0000,  0.0000,  0.0000,
          0.0000, -0.0000,  0.1000, -0.1000,  0.1000,  0.0000,  0.1000, -0.1000,
          0.1000,  0.3000, -0.2000, -0.2000, -0.1000,  0.0000, -0.1000, -0.1000,
          0.0000,  0.1000, -0.1000,  0.0000,  0.0000,  0.0000, -0.1000,  0.1000,
         -0.0000,  0.1000,  0.1000},
        {-0.1000,  0.2000,  0.1000,  0.0000, -0.1000, -0.0000,  0.0000,  0.1000,
         -0.1000,  0.1000, -0.1000, -0.1000,  0.1000,  0.0000,  0.0000,  0.3000,
          0.2000, -0.1000, -0.0000, -0.1000, -0.1000, -0.0000,  0.0000,  0.0000,
          0.1000,  0.3000,  0.1000, -0.2000, -0.1000, -0.0000, -0.1000, -0.0000,
          0.0000,  0.0000, -0.1000, -0.0000,  0.0000,  0.1000, -0.1000, -0.1000,
          0.2000,  0.0000, -0.2000, -0.2000, -0.1000,  0.1000, -0.0000,  0.1000,
          0.1000, -0.0000,  0.2000, -0.0000, -0.2000, -0.2000, -0.0000, -0.1000,
         -0.2000, -0.2000, -0.0000, -0.0000, -0.0000, -0.1000,  0.1000,  0.1000,
          0.1000, -0.0000,  0.1000, -0.1000,  0.0000,  0.0000, -0.1000, -0.1000,
          0.1000, -0.0000, -0.0000},
        { 0.1000, -0.1000,  0.1000, -0.0000, -0.0000,  0.0000,  0.1000,  0.0000,
          0.0000, -0.0000,  0.0000, -0.0000,  0.1000,  0.1000, -0.0000, -0.1000,
          0.0000, -0.0000, -0.0000, -0.0000, -0.1000, -0.1000, -0.1000,  0.0000,
          0.1000, -0.2000, -0.0000, -0.2000, -0.0000, -0.0000,  0.0000, -0.0000,
          0.1000,  0.1000, -0.0000,  0.1000, -0.1000,  0.2000, -0.1000, -0.1000,
         -0.1000, -0.0000, -0.2000,  0.2000,  0.2000,  0.1000,  0.0000, -0.1000,
         -0.0000,  0.0000, -0.2000, -0.0000, -0.1000,  0.1000,  0.1000, -0.0000,
         -0.0000, -0.0000,  0.3000, -0.0000,  0.1000,  0.0000, -0.0000,  0.0000,
          0.1000,  0.0000,  0.1000,  0.1000,  0.2000, -0.0000,  0.0000,  0.0000,
         -0.0000, -0.1000, -0.0000},
        {-0.1000,  0.1000,  0.1000,  0.1000,  0.0000, -0.1000, -0.1000,  0.0000,
          0.1000,  0.0000, -0.1000,  0.1000, -0.1000, -0.1000,  0.1000, -0.0000,
          0.0000,  0.1000,  0.0000, -0.0000,  0.1000,  0.0000, -0.1000,  0.1000,
          0.0000,  0.1000, -0.0000, -0.0000,  0.1000,  0.2000,  0.0000,  0.1000,
          0.1000,  0.1000, -0.1000,  0.0000, -0.1000, -0.0000,  0.1000,  0.1000,
          0.2000,  0.1000,  0.1000,  0.1000,  0.1000, -0.0000, -0.1000,  0.0000,
         -0.0000, -0.0000, -0.1000, -0.1000, -0.1000,  0.1000,  0.0000,  0.0000,
         -0.1000, -0.0000, -0.1000,  0.2000,  0.0000,  0.1000,  0.1000,  0.1000,
          0.1000,  0.0000, -0.0000, -0.1000, -0.0000, -0.1000, -0.1000, -0.1000,
          0.0000, -0.1000, -0.1000}};
#endif 