#include"dtype.h"
#ifndef conv_0_weight
Num_types conv_0_weight[30][3][3] = {
        {{-0.2450, -0.2273, -0.3987},
        { 0.0870, -0.0202, -0.2007},
        { 0.3451, -0.1495,  0.0713}},

        {{-0.1330, -0.2834,  0.3288},
        {-0.1359, -0.3167,  0.2999},
        {-0.0543, -0.1778,  0.3296}},

        {{  0.0801,  0.3488, -0.2226},
        {-0.2572, -0.2101, -0.3546},
        {0.5645,  0.5526,  0.4600}},

        {{-0.3853, -0.2838, -0.1404},
        {-0.3367,  0.1128, -0.3613},
        {-0.0407,  0.3162, -0.1772}},

        {{ 0.2791,  0.0597,  0.1785},
        {0.2549, -0.1552,  0.0913},
        {0.3934,  0.3932,  0.4311}},

        {{-0.0223, -0.2261,  0.2942},
        {0.0280, -0.3209,  0.0005},
        {0.3324,  0.1815,  0.0861}},

        {{-0.2000, -0.1000, -0.4000},
         { 0.3000,  0.2000,  0.2000},
         {-0.2000, -0.2000,  0.1000}},

        {{ 0.2000,  0.3000,  0.0000},
         { 0.0000, -0.1000,  0.3000},
         {-0.4000, -0.2000,  0.2000}},

        {{-0.2000, -0.2000, -0.2000},
         {-0.1000, -0.2000, -0.0000},
         { 0.2000,  0.4000,  0.2000}},

        {{-0.0000, -0.1000,  0.3000},
         { 0.0000, -0.2000,  0.3000},
         { 0.4000,  0.2000,  0.3000}},

        {{-0.0000, -0.3000,  0.2000},
         {-0.1000,  0.2000, -0.3000},
         {-0.3000, -0.1000,  0.2000}},

        {{-0.3000, -0.4000,  0.0000},
         { 0.1000,  0.0000, -0.1000},
         { 0.2000,  0.1000,  0.2000}},

        {{-0.4000,  0.0000, -0.2000},
         { 0.1000,  0.3000, -0.2000},
         { 0.2000, -0.1000, -0.2000}},

        {{ 0.2000,  0.3000,  0.1000},
         {-0.0000, -0.2000,  0.3000},
         { 0.1000, -0.0000,  0.1000}},

        {{-0.4000, -0.3000,  0.1000},
         {-0.2000, -0.1000, -0.2000},
         { 0.4000,  0.2000,  0.0000}},

        {{ 0.4000,  0.1000, -0.2000},
         { 0.0000,  0.0000,  0.3000},
         {-0.0000,  0.1000,  0.1000}},

        {{ 0.1000, -0.0000, -0.3000},
         {-0.0000,  0.2000,  0.3000},
         { 0.3000,  0.3000,  0.5000}},

        {{-0.3000, -0.4000, -0.5000},
         {-0.1000, -0.3000, -0.2000},
         { 0.3000, -0.0000, -0.2000}},

        {{ 0.2000, -0.0000,  0.1000},
         { 0.3000,  0.0000, -0.1000},
         {-0.1000, -0.0000, -0.3000}},

        {{ 0.4000,  0.2000,  0.4000},
         {-0.0000,  0.2000,  0.2000},
         { 0.2000, -0.3000, -0.3000}},

        {{ 0.2000, -0.0000,  0.2000},
         { 0.2000, -0.2000, -0.3000},
         {-0.2000,  0.3000, -0.0000}},

        {{ 0.0000, -0.2000,  0.2000},
         { 0.1000,  0.1000, -0.3000},
         { 0.1000,  0.2000,  0.2000}},

        {{-0.0000,  0.1000, -0.3000},
         {-0.0000,  0.1000,  0.1000},
         {-0.3000,  0.3000,  0.2000}},

        {{-0.0000, -0.3000,  0.1000},
         { 0.0000, -0.3000,  0.1000},
         { 0.0000,  0.1000, -0.2000}},

        {{-0.1000,  0.3000, -0.1000},
         { 0.3000,  0.3000,  0.2000},
         { 0.4000,  0.1000,  0.3000}},

        {{ 0.4000,  0.3000, -0.2000},
         { 0.2000,  0.3000,  0.3000},
         {-0.2000, -0.3000, -0.3000}},

        {{-0.3000, -0.1000, -0.5000},
         {-0.3000,  0.1000, -0.2000},
         { 0.1000, -0.3000, -0.0000}},

        {{ 0.2000,  0.0000, -0.3000},
         {-0.3000, -0.1000,  0.0000},
         { 0.3000, -0.1000,  0.1000}},

        {{ 0.3000, -0.2000,  0.0000},
         { 0.3000, -0.0000,  0.2000},
         { 0.1000, -0.1000, -0.1000}},

        {{-0.0644,  0.1643, -0.1565},
        { 0.2852,  0.1627,  0.2305},
        { 0.0278,  0.3248,  0.3889}}
        };
#endif 