#include"dtype.h"
#ifndef conv_0_weight
Num_types conv_0_weight[30][3][3] = {
        {{-0.2450, -0.2273, -0.3987},
        { 0.0870, -0.0202, -0.2007},
        { 0.3451, -0.1495,  0.0713}},

        {{-0.1330, -0.2834,  0.3288},
        {-0.1359, -0.3167,  0.2999},
        {-0.0543, -0.1778,  0.3296}},

        {{ 0.1000,  0.3000, -0.2000},
         {-0.3000, -0.2000, -0.4000},
         { 0.6000,  0.6000,  0.5000}},

        {{-0.4000, -0.3000, -0.1000},
         {-0.3000,  0.1000, -0.4000},
         {-0.0000,  0.3000, -0.2000}},

        {{ 0.3000,  0.1000,  0.2000},
         { 0.3000, -0.2000,  0.1000},
         { 0.4000,  0.4000,  0.4000}},

        {{-0.0000, -0.2000,  0.3000},
         { 0.0000, -0.3000,  0.0000},
         { 0.3000,  0.2000,  0.1000}},

        {{-0.2000, -0.1000, -0.4000},
         { 0.3000,  0.2000,  0.2000},
         {-0.2000, -0.2000,  0.1000}},

        {{ 0.2000,  0.3000,  0.0000},
         { 0.0000, -0.1000,  0.3000},
         {-0.4000, -0.2000,  0.2000}},

        {{-0.2000, -0.2000, -0.2000},
         {-0.1000, -0.2000, -0.0000},
         { 0.2000,  0.4000,  0.2000}},

        {{-0.0000, -0.1000,  0.3000},
         { 0.0000, -0.2000,  0.3000},
         { 0.4000,  0.2000,  0.3000}},

        {{-0.0000, -0.3000,  0.2000},
         {-0.1000,  0.2000, -0.3000},
         {-0.3000, -0.1000,  0.2000}},

        {{-0.3000, -0.4000,  0.0000},
         { 0.1000,  0.0000, -0.1000},
         { 0.2000,  0.1000,  0.2000}},

        {{-0.4000,  0.0000, -0.2000},
         { 0.1000,  0.3000, -0.2000},
         { 0.2000, -0.1000, -0.2000}},

        {{ 0.2000,  0.3000,  0.1000},
         {-0.0000, -0.2000,  0.3000},
         { 0.1000, -0.0000,  0.1000}},

        {{-0.4000, -0.3000,  0.1000},
         {-0.2000, -0.1000, -0.2000},
         { 0.4000,  0.2000,  0.0000}},

        {{ 0.4000,  0.1000, -0.2000},
         { 0.0000,  0.0000,  0.3000},
         {-0.0000,  0.1000,  0.1000}},

        {{ 0.1000, -0.0000, -0.3000},
         {-0.0000,  0.2000,  0.3000},
         { 0.3000,  0.3000,  0.5000}},

        {{-0.3000, -0.4000, -0.5000},
         {-0.1000, -0.3000, -0.2000},
         { 0.3000, -0.0000, -0.2000}},

        {{ 0.2000, -0.0000,  0.1000},
         { 0.3000,  0.0000, -0.1000},
         {-0.1000, -0.0000, -0.3000}},

        {{ 0.4000,  0.2000,  0.4000},
         {-0.0000,  0.2000,  0.2000},
         { 0.2000, -0.3000, -0.3000}},

        {{ 0.2000, -0.0000,  0.2000},
         { 0.2000, -0.2000, -0.3000},
         {-0.2000,  0.3000, -0.0000}},

        {{ 0.0000, -0.2000,  0.2000},
         { 0.1000,  0.1000, -0.3000},
         { 0.1000,  0.2000,  0.2000}},

        {{-0.0000,  0.1000, -0.3000},
         {-0.0000,  0.1000,  0.1000},
         {-0.3000,  0.3000,  0.2000}},

        {{-0.0000, -0.3000,  0.1000},
         { 0.0000, -0.3000,  0.1000},
         { 0.0000,  0.1000, -0.2000}},

        {{-0.1000,  0.3000, -0.1000},
         { 0.3000,  0.3000,  0.2000},
         { 0.4000,  0.1000,  0.3000}},

        {{ 0.4000,  0.3000, -0.2000},
         { 0.2000,  0.3000,  0.3000},
         {-0.2000, -0.3000, -0.3000}},

        {{-0.3000, -0.1000, -0.5000},
         {-0.3000,  0.1000, -0.2000},
         { 0.1000, -0.3000, -0.0000}},

        {{ 0.2000,  0.0000, -0.3000},
         {-0.3000, -0.1000,  0.0000},
         { 0.3000, -0.1000,  0.1000}},

        {{ 0.3000, -0.2000,  0.0000},
         { 0.3000, -0.0000,  0.2000},
         { 0.1000, -0.1000, -0.1000}},

        {{-0.0644,  0.1643, -0.1565},
        { 0.2852,  0.1627,  0.2305},
        { 0.0278,  0.3248,  0.3889}}
        };
#endif 